6
artificial_intelligence -0.046248 0.486960 0.219801 -0.694156 -0.251200 -1.059328 -1.191511 0.086277 -0.547607 0.144205 -0.208991 1.040462 0.042555 0.181264 -0.029998 0.405002 -0.171718 1.053802 0.277642 0.829386 -0.465784 -0.384883 0.577083 -0.408513 -0.496125 -0.731602 -0.331353 -0.363047 0.106747 0.058821 0.476449 -0.346205 -0.996782 0.493076 -0.066841 0.157319 0.332736 0.819358 0.237372 -0.051725 0.077818 -0.113497 0.197411 -1.040324 0.441842 0.775742 -0.402589 0.443166 -0.079173 -0.256868 1.011457 -0.240640 0.024010 0.757111 0.622914 -0.187061 -0.139227 -0.823850 0.060435 -0.475542 -0.374443 -0.789611 1.558336 0.249925 -0.178967 0.713384 0.801010 -1.244307 -0.191043 0.339724 0.056547 -1.207102 0.096606 -0.030906 0.396374 -0.046754 0.537094 1.476544 -0.191096 0.519432 1.126569 0.031863 -0.008385 0.615562 -0.421997 0.106383 0.247101 0.008915 -0.762583 0.442682 -0.204698 -0.245037 -0.086795 0.516703 0.810902 -0.479181 -0.185992 -1.031314 -0.086051 0.435028 
text_mining -1.384460 -0.511895 -0.361245 -0.076236 0.063255 0.375435 -0.484404 0.624383 0.116599 -0.893643 0.555566 0.068731 -0.892596 0.569440 0.024956 0.070509 0.242437 1.088229 -0.228164 0.010016 0.233836 -0.148733 -0.440921 -0.165109 -0.105058 -0.566323 -0.200975 0.938883 -0.972417 0.872797 -0.294731 0.540260 0.547269 0.540212 0.304145 -0.562529 -0.603917 -0.838574 0.072102 1.096968 0.466398 0.359996 -0.513804 -0.832042 -0.107050 -0.473273 -0.477983 -0.321029 -0.365180 -0.794616 -0.289384 0.357127 0.499794 0.237983 0.495992 0.070255 -0.212966 -0.087390 0.625266 -0.788256 0.149503 0.744245 0.081491 -0.433865 -0.044914 -0.708461 0.164758 -0.131889 0.784021 0.454245 -0.228581 0.565459 -0.324776 -0.035192 0.845650 -0.028875 0.996950 -0.916654 0.753393 -0.243113 -0.202647 0.746155 -0.581216 0.689273 0.592693 -0.958059 -0.080355 -1.127946 0.568758 0.431612 0.532486 -0.941274 0.142972 -0.383208 0.363396 -0.045886 0.211310 -1.285010 -0.016419 0.314537 
communication_networks 0.613858 0.446658 -0.236000 -0.133274 0.347469 1.138518 -0.846767 -0.877121 -0.119218 0.396748 0.263594 -1.069065 0.222421 -0.903681 -0.159898 0.458317 -0.005195 0.069102 0.033506 -0.528268 -0.911589 0.768178 -0.009175 -0.278448 0.124367 -0.481881 -0.150580 1.047527 -0.542031 -0.298173 0.819326 0.063447 0.135530 0.182428 0.445246 0.642197 1.033098 -0.624395 0.614567 -0.165158 0.325406 0.008838 -1.211979 -0.577213 -1.211265 -0.390801 -0.756780 0.357613 0.268593 -0.313860 0.216525 0.699068 0.222229 0.135947 -0.180054 -0.013658 -0.356719 0.461701 -0.904023 0.508687 -0.374329 0.120499 -0.539791 0.107192 0.893554 -0.790577 0.201680 0.372602 -0.373192 0.737180 -0.833217 0.771331 -0.292694 -0.231867 0.537205 -0.809538 -0.513860 0.703826 -0.718665 -0.600909 -0.190232 0.351193 0.628058 -0.561485 0.237648 -0.676757 -0.052409 1.052303 -0.038368 -0.843341 -1.023894 0.437956 -0.334619 -0.388327 0.472188 -0.113020 -0.097554 0.602003 -0.102516 0.838864 
social_computing 0.520510 0.469924 -0.326580 0.416010 1.354172 0.311113 -0.890364 0.408045 0.833974 -0.881298 0.774781 0.858051 -0.200107 0.330560 0.516478 -0.652654 0.634822 -0.559428 -0.404117 0.501434 1.248944 0.186555 0.509501 -0.470606 0.582509 -0.137555 0.200473 0.150552 0.371599 -0.444281 0.490234 0.846025 -0.040477 -0.204924 0.173995 0.192637 -0.022417 0.537427 0.062728 0.034003 -0.452721 0.861274 1.327562 0.399923 -0.155224 0.531739 -0.215837 -0.027797 -0.216846 -0.300084 0.584669 -0.284608 0.380023 0.531933 0.454574 -0.072858 -0.296116 0.280225 0.137112 0.884709 -0.708156 0.090103 0.415494 0.209268 0.461946 0.344570 -1.187701 0.315304 0.445822 0.024270 0.071919 0.223525 -1.281562 -0.755877 -0.421629 0.183364 0.336803 0.148611 0.289359 0.583834 0.492172 -0.679820 -0.096764 -0.558957 0.179386 0.594588 -0.435589 -0.815699 0.613513 -0.782879 0.439461 0.360300 -1.548913 -0.575434 0.076762 -0.402755 0.055168 0.527664 -0.230092 0.427185 
distributed_systems -0.573799 0.659577 0.762243 0.085789 1.445193 0.348238 0.299924 -0.057000 -0.393954 0.828818 -0.054598 -0.059234 -0.019381 -0.421779 -0.669785 -0.221373 -0.123119 -0.415350 -0.299188 -0.395861 -0.096664 -0.157874 0.628489 1.114421 -0.389036 0.379405 -0.177846 -0.517842 -0.850295 -0.693647 -0.230999 0.326103 0.452426 -0.974894 -0.929385 -0.582981 0.643584 0.415076 -0.452682 -0.348504 -0.175565 -1.430584 -0.478397 -0.316918 0.244253 -0.847107 0.048548 0.294923 -0.461548 0.476846 -0.832449 0.181140 0.214995 0.348893 0.421198 0.229567 -0.086149 -0.057069 -0.341702 -0.329503 -0.162119 0.780522 -0.012316 -0.354499 -0.377950 -0.265146 -0.554960 -0.256529 0.167825 0.438453 -0.098109 0.183286 -0.593011 0.229365 -0.183216 0.429473 -0.381346 0.664459 0.492821 0.405689 0.297673 -0.983256 -0.219323 -0.262343 -0.285317 0.199536 -0.695078 -0.610924 -0.603750 0.331572 0.534680 -0.999469 -0.319613 0.321610 0.270047 -0.074512 0.624489 -0.539228 0.591133 0.303008 
pattern_recognition 0.450908 -0.362101 -0.042957 0.542396 -0.378872 0.472284 0.084885 0.063731 -0.655177 0.661656 0.326804 1.803955 0.214663 -0.663393 -0.416943 0.096982 0.463734 0.755651 0.764920 -0.669068 0.045687 0.051803 0.045828 -0.016906 0.554410 0.539021 0.748939 0.780492 0.197278 0.480996 -0.074681 -0.241912 0.316332 -0.443906 -0.294243 0.072556 -0.221986 -0.148981 0.695863 0.052002 0.169699 -0.197013 0.146265 -0.082017 0.628351 -0.518795 0.182353 -0.154770 -0.155112 1.011244 0.246774 1.205358 -0.002714 0.196772 0.826319 0.408289 -0.442158 -0.624427 0.681524 0.016630 0.250849 0.422889 0.043314 1.157813 1.222802 -0.236955 -0.761224 0.323192 0.090766 0.271578 0.654978 0.541261 1.203622 -0.465614 -0.600256 -0.305555 1.126214 0.278585 0.042282 -0.370149 0.210689 -0.182642 -0.471342 -0.083129 -0.929929 -0.423132 0.370889 0.100481 0.940540 -0.302145 0.104391 -0.112932 0.236786 0.333573 -0.553769 1.207218 0.182606 -0.295195 -0.571291 -0.661394 
